digraph Tree {
node [shape=box, style="filled, rounded", color="black", fontname=helvetica] ;
edge [fontname=helvetica] ;
0 [label="cp <= 3.5\ngini = 0.49\nsamples = 146\nvalue = [131, 106]\nclass = [", fillcolor="#fae7d9"] ;
1 [label="restecg <= 1.5\ngini = 0.38\nsamples = 76\nvalue = [88, 30]\nclass = [", fillcolor="#eeac7c"] ;
0 -> 1 [labeldistance=2.5, labelangle=45, headlabel="True"] ;
2 [label="oldpeak <= 1.9\ngini = 0.29\nsamples = 42\nvalue = [55, 12]\nclass = [", fillcolor="#eb9c64"] ;
1 -> 2 ;
3 [label="thal <= 5.0\ngini = 0.13\nsamples = 36\nvalue = [53, 4]\nclass = [", fillcolor="#e78b48"] ;
2 -> 3 ;
4 [label="oldpeak <= 0.7\ngini = 0.04\nsamples = 29\nvalue = [46, 1]\nclass = [", fillcolor="#e6843d"] ;
3 -> 4 ;
5 [label="gini = 0.0\nsamples = 22\nvalue = [32, 0]\nclass = [", fillcolor="#e58139"] ;
4 -> 5 ;
6 [label="ca <= 1.0\ngini = 0.12\nsamples = 7\nvalue = [14, 1]\nclass = [", fillcolor="#e78a47"] ;
4 -> 6 ;
7 [label="gini = 0.0\nsamples = 6\nvalue = [14, 0]\nclass = [", fillcolor="#e58139"] ;
6 -> 7 ;
8 [label="gini = 0.0\nsamples = 1\nvalue = [0, 1]\nclass = 0", fillcolor="#399de5"] ;
6 -> 8 ;
9 [label="oldpeak <= 0.9\ngini = 0.42\nsamples = 7\nvalue = [7, 3]\nclass = [", fillcolor="#f0b78e"] ;
3 -> 9 ;
10 [label="gini = 0.0\nsamples = 4\nvalue = [5, 0]\nclass = [", fillcolor="#e58139"] ;
9 -> 10 ;
11 [label="age <= 55.0\ngini = 0.48\nsamples = 3\nvalue = [2, 3]\nclass = 0", fillcolor="#bddef6"] ;
9 -> 11 ;
12 [label="gini = 0.0\nsamples = 1\nvalue = [0, 2]\nclass = 0", fillcolor="#399de5"] ;
11 -> 12 ;
13 [label="exang <= 0.5\ngini = 0.44\nsamples = 2\nvalue = [2, 1]\nclass = [", fillcolor="#f2c09c"] ;
11 -> 13 ;
14 [label="gini = 0.0\nsamples = 1\nvalue = [2, 0]\nclass = [", fillcolor="#e58139"] ;
13 -> 14 ;
15 [label="gini = 0.0\nsamples = 1\nvalue = [0, 1]\nclass = 0", fillcolor="#399de5"] ;
13 -> 15 ;
16 [label="slope <= 2.5\ngini = 0.32\nsamples = 6\nvalue = [2, 8]\nclass = 0", fillcolor="#6ab6ec"] ;
2 -> 16 ;
17 [label="gini = 0.0\nsamples = 5\nvalue = [0, 8]\nclass = 0", fillcolor="#399de5"] ;
16 -> 17 ;
18 [label="gini = 0.0\nsamples = 1\nvalue = [2, 0]\nclass = [", fillcolor="#e58139"] ;
16 -> 18 ;
19 [label="fbs <= 0.5\ngini = 0.46\nsamples = 34\nvalue = [33, 18]\nclass = [", fillcolor="#f3c6a5"] ;
1 -> 19 ;
20 [label="exang <= 0.5\ngini = 0.42\nsamples = 30\nvalue = [32, 14]\nclass = [", fillcolor="#f0b890"] ;
19 -> 20 ;
21 [label="oldpeak <= 1.7\ngini = 0.48\nsamples = 25\nvalue = [22, 14]\nclass = [", fillcolor="#f6d1b7"] ;
20 -> 21 ;
22 [label="age <= 56.5\ngini = 0.41\nsamples = 21\nvalue = [20, 8]\nclass = [", fillcolor="#efb388"] ;
21 -> 22 ;
23 [label="gini = 0.0\nsamples = 10\nvalue = [13, 0]\nclass = [", fillcolor="#e58139"] ;
22 -> 23 ;
24 [label="thal <= 5.0\ngini = 0.5\nsamples = 11\nvalue = [7, 8]\nclass = 0", fillcolor="#e6f3fc"] ;
22 -> 24 ;
25 [label="ca <= 0.5\ngini = 0.44\nsamples = 7\nvalue = [6, 3]\nclass = [", fillcolor="#f2c09c"] ;
24 -> 25 ;
26 [label="trestbps <= 158.0\ngini = 0.24\nsamples = 5\nvalue = [6, 1]\nclass = [", fillcolor="#e9965a"] ;
25 -> 26 ;
27 [label="gini = 0.0\nsamples = 3\nvalue = [5, 0]\nclass = [", fillcolor="#e58139"] ;
26 -> 27 ;
28 [label="age <= 62.0\ngini = 0.5\nsamples = 2\nvalue = [1, 1]\nclass = [", fillcolor="#ffffff"] ;
26 -> 28 ;
29 [label="gini = 0.0\nsamples = 1\nvalue = [0, 1]\nclass = 0", fillcolor="#399de5"] ;
28 -> 29 ;
30 [label="gini = 0.0\nsamples = 1\nvalue = [1, 0]\nclass = [", fillcolor="#e58139"] ;
28 -> 30 ;
31 [label="gini = 0.0\nsamples = 2\nvalue = [0, 2]\nclass = 0", fillcolor="#399de5"] ;
25 -> 31 ;
32 [label="oldpeak <= 1.5\ngini = 0.28\nsamples = 4\nvalue = [1, 5]\nclass = 0", fillcolor="#61b1ea"] ;
24 -> 32 ;
33 [label="gini = 0.0\nsamples = 3\nvalue = [0, 5]\nclass = 0", fillcolor="#399de5"] ;
32 -> 33 ;
34 [label="gini = 0.0\nsamples = 1\nvalue = [1, 0]\nclass = [", fillcolor="#e58139"] ;
32 -> 34 ;
35 [label="trestbps <= 155.0\ngini = 0.38\nsamples = 4\nvalue = [2, 6]\nclass = 0", fillcolor="#7bbeee"] ;
21 -> 35 ;
36 [label="age <= 49.5\ngini = 0.24\nsamples = 3\nvalue = [1, 6]\nclass = 0", fillcolor="#5aade9"] ;
35 -> 36 ;
37 [label="gini = 0.0\nsamples = 1\nvalue = [1, 0]\nclass = [", fillcolor="#e58139"] ;
36 -> 37 ;
38 [label="gini = 0.0\nsamples = 2\nvalue = [0, 6]\nclass = 0", fillcolor="#399de5"] ;
36 -> 38 ;
39 [label="gini = 0.0\nsamples = 1\nvalue = [1, 0]\nclass = [", fillcolor="#e58139"] ;
35 -> 39 ;
40 [label="gini = 0.0\nsamples = 5\nvalue = [10, 0]\nclass = [", fillcolor="#e58139"] ;
20 -> 40 ;
41 [label="ca <= 0.5\ngini = 0.32\nsamples = 4\nvalue = [1, 4]\nclass = 0", fillcolor="#6ab6ec"] ;
19 -> 41 ;
42 [label="gini = 0.0\nsamples = 1\nvalue = [0, 2]\nclass = 0", fillcolor="#399de5"] ;
41 -> 42 ;
43 [label="trestbps <= 149.0\ngini = 0.44\nsamples = 3\nvalue = [1, 2]\nclass = 0", fillcolor="#9ccef2"] ;
41 -> 43 ;
44 [label="gini = 0.0\nsamples = 2\nvalue = [0, 2]\nclass = 0", fillcolor="#399de5"] ;
43 -> 44 ;
45 [label="gini = 0.0\nsamples = 1\nvalue = [1, 0]\nclass = [", fillcolor="#e58139"] ;
43 -> 45 ;
46 [label="ca <= 0.5\ngini = 0.46\nsamples = 70\nvalue = [43, 76]\nclass = 0", fillcolor="#a9d4f4"] ;
0 -> 46 [labeldistance=2.5, labelangle=-45, headlabel="False"] ;
47 [label="exang <= 0.5\ngini = 0.47\nsamples = 37\nvalue = [40, 25]\nclass = [", fillcolor="#f5d0b5"] ;
46 -> 47 ;
48 [label="thalach <= 96.5\ngini = 0.38\nsamples = 17\nvalue = [24, 8]\nclass = [", fillcolor="#eeab7b"] ;
47 -> 48 ;
49 [label="gini = 0.0\nsamples = 1\nvalue = [0, 1]\nclass = 0", fillcolor="#399de5"] ;
48 -> 49 ;
50 [label="chol <= 214.0\ngini = 0.35\nsamples = 16\nvalue = [24, 7]\nclass = [", fillcolor="#eda673"] ;
48 -> 50 ;
51 [label="gini = 0.0\nsamples = 4\nvalue = [11, 0]\nclass = [", fillcolor="#e58139"] ;
50 -> 51 ;
52 [label="age <= 40.5\ngini = 0.45\nsamples = 12\nvalue = [13, 7]\nclass = [", fillcolor="#f3c5a4"] ;
50 -> 52 ;
53 [label="gini = 0.0\nsamples = 1\nvalue = [0, 3]\nclass = 0", fillcolor="#399de5"] ;
52 -> 53 ;
54 [label="thal <= 6.5\ngini = 0.36\nsamples = 11\nvalue = [13, 4]\nclass = [", fillcolor="#eda876"] ;
52 -> 54 ;
55 [label="sex <= 0.5\ngini = 0.23\nsamples = 10\nvalue = [13, 2]\nclass = [", fillcolor="#e99457"] ;
54 -> 55 ;
56 [label="chol <= 287.0\ngini = 0.38\nsamples = 5\nvalue = [6, 2]\nclass = [", fillcolor="#eeab7b"] ;
55 -> 56 ;
57 [label="gini = 0.0\nsamples = 2\nvalue = [4, 0]\nclass = [", fillcolor="#e58139"] ;
56 -> 57 ;
58 [label="chol <= 362.0\ngini = 0.5\nsamples = 3\nvalue = [2, 2]\nclass = [", fillcolor="#ffffff"] ;
56 -> 58 ;
59 [label="gini = 0.0\nsamples = 2\nvalue = [0, 2]\nclass = 0", fillcolor="#399de5"] ;
58 -> 59 ;
60 [label="gini = 0.0\nsamples = 1\nvalue = [2, 0]\nclass = [", fillcolor="#e58139"] ;
58 -> 60 ;
61 [label="gini = 0.0\nsamples = 5\nvalue = [7, 0]\nclass = [", fillcolor="#e58139"] ;
55 -> 61 ;
62 [label="gini = 0.0\nsamples = 1\nvalue = [0, 2]\nclass = 0", fillcolor="#399de5"] ;
54 -> 62 ;
63 [label="thalach <= 147.0\ngini = 0.5\nsamples = 20\nvalue = [16, 17]\nclass = 0", fillcolor="#f3f9fd"] ;
47 -> 63 ;
64 [label="slope <= 1.5\ngini = 0.38\nsamples = 12\nvalue = [5, 15]\nclass = 0", fillcolor="#7bbeee"] ;
63 -> 64 ;
65 [label="gini = 0.0\nsamples = 1\nvalue = [3, 0]\nclass = [", fillcolor="#e58139"] ;
64 -> 65 ;
66 [label="restecg <= 1.0\ngini = 0.21\nsamples = 11\nvalue = [2, 15]\nclass = 0", fillcolor="#53aae8"] ;
64 -> 66 ;
67 [label="oldpeak <= 1.65\ngini = 0.35\nsamples = 7\nvalue = [2, 7]\nclass = 0", fillcolor="#72b9ec"] ;
66 -> 67 ;
68 [label="trestbps <= 117.0\ngini = 0.48\nsamples = 4\nvalue = [2, 3]\nclass = 0", fillcolor="#bddef6"] ;
67 -> 68 ;
69 [label="gini = 0.0\nsamples = 1\nvalue = [2, 0]\nclass = [", fillcolor="#e58139"] ;
68 -> 69 ;
70 [label="gini = 0.0\nsamples = 3\nvalue = [0, 3]\nclass = 0", fillcolor="#399de5"] ;
68 -> 70 ;
71 [label="gini = 0.0\nsamples = 3\nvalue = [0, 4]\nclass = 0", fillcolor="#399de5"] ;
67 -> 71 ;
72 [label="gini = 0.0\nsamples = 4\nvalue = [0, 8]\nclass = 0", fillcolor="#399de5"] ;
66 -> 72 ;
73 [label="thal <= 5.0\ngini = 0.26\nsamples = 8\nvalue = [11, 2]\nclass = [", fillcolor="#ea985d"] ;
63 -> 73 ;
74 [label="gini = 0.0\nsamples = 5\nvalue = [10, 0]\nclass = [", fillcolor="#e58139"] ;
73 -> 74 ;
75 [label="age <= 54.0\ngini = 0.44\nsamples = 3\nvalue = [1, 2]\nclass = 0", fillcolor="#9ccef2"] ;
73 -> 75 ;
76 [label="gini = 0.0\nsamples = 2\nvalue = [0, 2]\nclass = 0", fillcolor="#399de5"] ;
75 -> 76 ;
77 [label="gini = 0.0\nsamples = 1\nvalue = [1, 0]\nclass = [", fillcolor="#e58139"] ;
75 -> 77 ;
78 [label="chol <= 301.5\ngini = 0.1\nsamples = 33\nvalue = [3, 51]\nclass = 0", fillcolor="#45a3e7"] ;
46 -> 78 ;
79 [label="trestbps <= 109.0\ngini = 0.04\nsamples = 28\nvalue = [1, 46]\nclass = 0", fillcolor="#3d9fe6"] ;
78 -> 79 ;
80 [label="fbs <= 0.5\ngini = 0.38\nsamples = 3\nvalue = [1, 3]\nclass = 0", fillcolor="#7bbeee"] ;
79 -> 80 ;
81 [label="gini = 0.0\nsamples = 2\nvalue = [0, 3]\nclass = 0", fillcolor="#399de5"] ;
80 -> 81 ;
82 [label="gini = 0.0\nsamples = 1\nvalue = [1, 0]\nclass = [", fillcolor="#e58139"] ;
80 -> 82 ;
83 [label="gini = 0.0\nsamples = 25\nvalue = [0, 43]\nclass = 0", fillcolor="#399de5"] ;
79 -> 83 ;
84 [label="thalach <= 127.0\ngini = 0.41\nsamples = 5\nvalue = [2, 5]\nclass = 0", fillcolor="#88c4ef"] ;
78 -> 84 ;
85 [label="sex <= 0.5\ngini = 0.44\nsamples = 2\nvalue = [2, 1]\nclass = [", fillcolor="#f2c09c"] ;
84 -> 85 ;
86 [label="gini = 0.0\nsamples = 1\nvalue = [2, 0]\nclass = [", fillcolor="#e58139"] ;
85 -> 86 ;
87 [label="gini = 0.0\nsamples = 1\nvalue = [0, 1]\nclass = 0", fillcolor="#399de5"] ;
85 -> 87 ;
88 [label="gini = 0.0\nsamples = 3\nvalue = [0, 4]\nclass = 0", fillcolor="#399de5"] ;
84 -> 88 ;
}