digraph Tree {
node [shape=box, style="filled, rounded", color="black", fontname=helvetica] ;
edge [fontname=helvetica] ;
0 [label="cp <= 3.5\ngini = 0.5\nsamples = 146\nvalue = [121, 116]\nclass = [", fillcolor="#fefaf7"] ;
1 [label="exang <= 0.5\ngini = 0.34\nsamples = 80\nvalue = [100, 28]\nclass = [", fillcolor="#eca470"] ;
0 -> 1 [labeldistance=2.5, labelangle=45, headlabel="True"] ;
2 [label="oldpeak <= 1.95\ngini = 0.31\nsamples = 75\nvalue = [95, 22]\nclass = [", fillcolor="#eb9e67"] ;
1 -> 2 ;
3 [label="thalach <= 168.5\ngini = 0.21\nsamples = 65\nvalue = [90, 12]\nclass = [", fillcolor="#e89253"] ;
2 -> 3 ;
4 [label="chol <= 202.5\ngini = 0.31\nsamples = 44\nvalue = [51, 12]\nclass = [", fillcolor="#eb9f68"] ;
3 -> 4 ;
5 [label="gini = 0.0\nsamples = 11\nvalue = [14, 0]\nclass = [", fillcolor="#e58139"] ;
4 -> 5 ;
6 [label="sex <= 0.5\ngini = 0.37\nsamples = 33\nvalue = [37, 12]\nclass = [", fillcolor="#edaa79"] ;
4 -> 6 ;
7 [label="gini = 0.0\nsamples = 14\nvalue = [18, 0]\nclass = [", fillcolor="#e58139"] ;
6 -> 7 ;
8 [label="age <= 45.5\ngini = 0.47\nsamples = 19\nvalue = [19, 12]\nclass = [", fillcolor="#f5d1b6"] ;
6 -> 8 ;
9 [label="gini = 0.0\nsamples = 3\nvalue = [5, 0]\nclass = [", fillcolor="#e58139"] ;
8 -> 9 ;
10 [label="oldpeak <= 0.55\ngini = 0.5\nsamples = 16\nvalue = [14, 12]\nclass = [", fillcolor="#fbede3"] ;
8 -> 10 ;
11 [label="age <= 56.5\ngini = 0.42\nsamples = 8\nvalue = [7, 3]\nclass = [", fillcolor="#f0b78e"] ;
10 -> 11 ;
12 [label="gini = 0.0\nsamples = 5\nvalue = [5, 0]\nclass = [", fillcolor="#e58139"] ;
11 -> 12 ;
13 [label="cp <= 2.5\ngini = 0.48\nsamples = 3\nvalue = [2, 3]\nclass = 0", fillcolor="#bddef6"] ;
11 -> 13 ;
14 [label="gini = 0.0\nsamples = 1\nvalue = [0, 2]\nclass = 0", fillcolor="#399de5"] ;
13 -> 14 ;
15 [label="fbs <= 0.5\ngini = 0.44\nsamples = 2\nvalue = [2, 1]\nclass = [", fillcolor="#f2c09c"] ;
13 -> 15 ;
16 [label="gini = 0.0\nsamples = 1\nvalue = [0, 1]\nclass = 0", fillcolor="#399de5"] ;
15 -> 16 ;
17 [label="gini = 0.0\nsamples = 1\nvalue = [2, 0]\nclass = [", fillcolor="#e58139"] ;
15 -> 17 ;
18 [label="trestbps <= 145.0\ngini = 0.49\nsamples = 8\nvalue = [7, 9]\nclass = 0", fillcolor="#d3e9f9"] ;
10 -> 18 ;
19 [label="thalach <= 153.0\ngini = 0.32\nsamples = 5\nvalue = [2, 8]\nclass = 0", fillcolor="#6ab6ec"] ;
18 -> 19 ;
20 [label="gini = 0.0\nsamples = 1\nvalue = [2, 0]\nclass = [", fillcolor="#e58139"] ;
19 -> 20 ;
21 [label="gini = 0.0\nsamples = 4\nvalue = [0, 8]\nclass = 0", fillcolor="#399de5"] ;
19 -> 21 ;
22 [label="slope <= 1.5\ngini = 0.28\nsamples = 3\nvalue = [5, 1]\nclass = [", fillcolor="#ea9a61"] ;
18 -> 22 ;
23 [label="gini = 0.0\nsamples = 1\nvalue = [3, 0]\nclass = [", fillcolor="#e58139"] ;
22 -> 23 ;
24 [label="chol <= 219.5\ngini = 0.44\nsamples = 2\nvalue = [2, 1]\nclass = [", fillcolor="#f2c09c"] ;
22 -> 24 ;
25 [label="gini = 0.0\nsamples = 1\nvalue = [0, 1]\nclass = 0", fillcolor="#399de5"] ;
24 -> 25 ;
26 [label="gini = 0.0\nsamples = 1\nvalue = [2, 0]\nclass = [", fillcolor="#e58139"] ;
24 -> 26 ;
27 [label="gini = 0.0\nsamples = 21\nvalue = [39, 0]\nclass = [", fillcolor="#e58139"] ;
3 -> 27 ;
28 [label="age <= 43.5\ngini = 0.44\nsamples = 10\nvalue = [5, 10]\nclass = 0", fillcolor="#9ccef2"] ;
2 -> 28 ;
29 [label="gini = 0.0\nsamples = 2\nvalue = [3, 0]\nclass = [", fillcolor="#e58139"] ;
28 -> 29 ;
30 [label="slope <= 2.5\ngini = 0.28\nsamples = 8\nvalue = [2, 10]\nclass = 0", fillcolor="#61b1ea"] ;
28 -> 30 ;
31 [label="chol <= 239.5\ngini = 0.17\nsamples = 7\nvalue = [1, 10]\nclass = 0", fillcolor="#4da7e8"] ;
30 -> 31 ;
32 [label="gini = 0.0\nsamples = 5\nvalue = [0, 9]\nclass = 0", fillcolor="#399de5"] ;
31 -> 32 ;
33 [label="age <= 60.0\ngini = 0.5\nsamples = 2\nvalue = [1, 1]\nclass = [", fillcolor="#ffffff"] ;
31 -> 33 ;
34 [label="gini = 0.0\nsamples = 1\nvalue = [1, 0]\nclass = [", fillcolor="#e58139"] ;
33 -> 34 ;
35 [label="gini = 0.0\nsamples = 1\nvalue = [0, 1]\nclass = 0", fillcolor="#399de5"] ;
33 -> 35 ;
36 [label="gini = 0.0\nsamples = 1\nvalue = [1, 0]\nclass = [", fillcolor="#e58139"] ;
30 -> 36 ;
37 [label="chol <= 244.5\ngini = 0.5\nsamples = 5\nvalue = [5, 6]\nclass = 0", fillcolor="#deeffb"] ;
1 -> 37 ;
38 [label="gini = 0.0\nsamples = 2\nvalue = [5, 0]\nclass = [", fillcolor="#e58139"] ;
37 -> 38 ;
39 [label="gini = 0.0\nsamples = 3\nvalue = [0, 6]\nclass = 0", fillcolor="#399de5"] ;
37 -> 39 ;
40 [label="thal <= 6.5\ngini = 0.31\nsamples = 66\nvalue = [21, 88]\nclass = 0", fillcolor="#68b4eb"] ;
0 -> 40 [labeldistance=2.5, labelangle=-45, headlabel="False"] ;
41 [label="chol <= 232.5\ngini = 0.49\nsamples = 25\nvalue = [18, 23]\nclass = 0", fillcolor="#d4eaf9"] ;
40 -> 41 ;
42 [label="fbs <= 0.5\ngini = 0.42\nsamples = 13\nvalue = [14, 6]\nclass = [", fillcolor="#f0b78e"] ;
41 -> 42 ;
43 [label="exang <= 0.5\ngini = 0.39\nsamples = 12\nvalue = [14, 5]\nclass = [", fillcolor="#eeae80"] ;
42 -> 43 ;
44 [label="thalach <= 135.0\ngini = 0.24\nsamples = 8\nvalue = [12, 2]\nclass = [", fillcolor="#e9965a"] ;
43 -> 44 ;
45 [label="oldpeak <= 1.8\ngini = 0.48\nsamples = 3\nvalue = [3, 2]\nclass = [", fillcolor="#f6d5bd"] ;
44 -> 45 ;
46 [label="gini = 0.0\nsamples = 2\nvalue = [3, 0]\nclass = [", fillcolor="#e58139"] ;
45 -> 46 ;
47 [label="gini = 0.0\nsamples = 1\nvalue = [0, 2]\nclass = 0", fillcolor="#399de5"] ;
45 -> 47 ;
48 [label="gini = 0.0\nsamples = 5\nvalue = [9, 0]\nclass = [", fillcolor="#e58139"] ;
44 -> 48 ;
49 [label="chol <= 199.0\ngini = 0.48\nsamples = 4\nvalue = [2, 3]\nclass = 0", fillcolor="#bddef6"] ;
43 -> 49 ;
50 [label="gini = 0.0\nsamples = 1\nvalue = [0, 2]\nclass = 0", fillcolor="#399de5"] ;
49 -> 50 ;
51 [label="trestbps <= 111.0\ngini = 0.44\nsamples = 3\nvalue = [2, 1]\nclass = [", fillcolor="#f2c09c"] ;
49 -> 51 ;
52 [label="gini = 0.0\nsamples = 2\nvalue = [2, 0]\nclass = [", fillcolor="#e58139"] ;
51 -> 52 ;
53 [label="gini = 0.0\nsamples = 1\nvalue = [0, 1]\nclass = 0", fillcolor="#399de5"] ;
51 -> 53 ;
54 [label="gini = 0.0\nsamples = 1\nvalue = [0, 1]\nclass = 0", fillcolor="#399de5"] ;
42 -> 54 ;
55 [label="thalach <= 171.0\ngini = 0.31\nsamples = 12\nvalue = [4, 17]\nclass = 0", fillcolor="#68b4eb"] ;
41 -> 55 ;
56 [label="thalach <= 117.0\ngini = 0.26\nsamples = 11\nvalue = [3, 17]\nclass = 0", fillcolor="#5caeea"] ;
55 -> 56 ;
57 [label="gini = 0.0\nsamples = 4\nvalue = [0, 8]\nclass = 0", fillcolor="#399de5"] ;
56 -> 57 ;
58 [label="chol <= 304.0\ngini = 0.38\nsamples = 7\nvalue = [3, 9]\nclass = 0", fillcolor="#7bbeee"] ;
56 -> 58 ;
59 [label="thalach <= 123.5\ngini = 0.5\nsamples = 4\nvalue = [3, 3]\nclass = [", fillcolor="#ffffff"] ;
58 -> 59 ;
60 [label="gini = 0.0\nsamples = 1\nvalue = [2, 0]\nclass = [", fillcolor="#e58139"] ;
59 -> 60 ;
61 [label="trestbps <= 130.0\ngini = 0.38\nsamples = 3\nvalue = [1, 3]\nclass = 0", fillcolor="#7bbeee"] ;
59 -> 61 ;
62 [label="chol <= 300.5\ngini = 0.5\nsamples = 2\nvalue = [1, 1]\nclass = [", fillcolor="#ffffff"] ;
61 -> 62 ;
63 [label="gini = 0.0\nsamples = 1\nvalue = [0, 1]\nclass = 0", fillcolor="#399de5"] ;
62 -> 63 ;
64 [label="gini = 0.0\nsamples = 1\nvalue = [1, 0]\nclass = [", fillcolor="#e58139"] ;
62 -> 64 ;
65 [label="gini = 0.0\nsamples = 1\nvalue = [0, 2]\nclass = 0", fillcolor="#399de5"] ;
61 -> 65 ;
66 [label="gini = 0.0\nsamples = 3\nvalue = [0, 6]\nclass = 0", fillcolor="#399de5"] ;
58 -> 66 ;
67 [label="gini = 0.0\nsamples = 1\nvalue = [1, 0]\nclass = [", fillcolor="#e58139"] ;
55 -> 67 ;
68 [label="oldpeak <= 0.45\ngini = 0.08\nsamples = 41\nvalue = [3, 65]\nclass = 0", fillcolor="#42a2e6"] ;
40 -> 68 ;
69 [label="thalach <= 143.5\ngini = 0.38\nsamples = 9\nvalue = [3, 9]\nclass = 0", fillcolor="#7bbeee"] ;
68 -> 69 ;
70 [label="gini = 0.0\nsamples = 2\nvalue = [3, 0]\nclass = [", fillcolor="#e58139"] ;
69 -> 70 ;
71 [label="gini = 0.0\nsamples = 7\nvalue = [0, 9]\nclass = 0", fillcolor="#399de5"] ;
69 -> 71 ;
72 [label="gini = 0.0\nsamples = 32\nvalue = [0, 56]\nclass = 0", fillcolor="#399de5"] ;
68 -> 72 ;
}