digraph Tree {
node [shape=box, style="filled, rounded", color="black", fontname=helvetica] ;
edge [fontname=helvetica] ;
0 [label="cp <= 3.5\ngini = 0.5\nsamples = 146\nvalue = [130, 107]\nclass = [", fillcolor="#fae9dc"] ;
1 [label="cp <= 1.5\ngini = 0.32\nsamples = 74\nvalue = [94, 24]\nclass = [", fillcolor="#eca16c"] ;
0 -> 1 [labeldistance=2.5, labelangle=45, headlabel="True"] ;
2 [label="oldpeak <= 1.3\ngini = 0.42\nsamples = 11\nvalue = [14, 6]\nclass = [", fillcolor="#f0b78e"] ;
1 -> 2 ;
3 [label="thalach <= 168.0\ngini = 0.5\nsamples = 6\nvalue = [7, 6]\nclass = [", fillcolor="#fbede3"] ;
2 -> 3 ;
4 [label="chol <= 273.5\ngini = 0.48\nsamples = 4\nvalue = [4, 6]\nclass = 0", fillcolor="#bddef6"] ;
3 -> 4 ;
5 [label="oldpeak <= 0.7\ngini = 0.24\nsamples = 3\nvalue = [1, 6]\nclass = 0", fillcolor="#5aade9"] ;
4 -> 5 ;
6 [label="gini = 0.0\nsamples = 1\nvalue = [1, 0]\nclass = [", fillcolor="#e58139"] ;
5 -> 6 ;
7 [label="gini = 0.0\nsamples = 2\nvalue = [0, 6]\nclass = 0", fillcolor="#399de5"] ;
5 -> 7 ;
8 [label="gini = 0.0\nsamples = 1\nvalue = [3, 0]\nclass = [", fillcolor="#e58139"] ;
4 -> 8 ;
9 [label="gini = 0.0\nsamples = 2\nvalue = [3, 0]\nclass = [", fillcolor="#e58139"] ;
3 -> 9 ;
10 [label="gini = 0.0\nsamples = 5\nvalue = [7, 0]\nclass = [", fillcolor="#e58139"] ;
2 -> 10 ;
11 [label="thal <= 4.5\ngini = 0.3\nsamples = 63\nvalue = [80, 18]\nclass = [", fillcolor="#eb9d66"] ;
1 -> 11 ;
12 [label="chol <= 229.0\ngini = 0.12\nsamples = 50\nvalue = [74, 5]\nclass = [", fillcolor="#e78a46"] ;
11 -> 12 ;
13 [label="gini = 0.0\nsamples = 17\nvalue = [30, 0]\nclass = [", fillcolor="#e58139"] ;
12 -> 13 ;
14 [label="oldpeak <= 0.1\ngini = 0.18\nsamples = 33\nvalue = [44, 5]\nclass = [", fillcolor="#e88f50"] ;
12 -> 14 ;
15 [label="chol <= 244.0\ngini = 0.33\nsamples = 17\nvalue = [19, 5]\nclass = [", fillcolor="#eca26d"] ;
14 -> 15 ;
16 [label="gini = 0.0\nsamples = 3\nvalue = [0, 4]\nclass = 0", fillcolor="#399de5"] ;
15 -> 16 ;
17 [label="thalach <= 158.5\ngini = 0.09\nsamples = 14\nvalue = [19, 1]\nclass = [", fillcolor="#e68843"] ;
15 -> 17 ;
18 [label="trestbps <= 139.0\ngini = 0.32\nsamples = 5\nvalue = [4, 1]\nclass = [", fillcolor="#eca06a"] ;
17 -> 18 ;
19 [label="gini = 0.0\nsamples = 3\nvalue = [3, 0]\nclass = [", fillcolor="#e58139"] ;
18 -> 19 ;
20 [label="trestbps <= 148.0\ngini = 0.5\nsamples = 2\nvalue = [1, 1]\nclass = [", fillcolor="#ffffff"] ;
18 -> 20 ;
21 [label="gini = 0.0\nsamples = 1\nvalue = [0, 1]\nclass = 0", fillcolor="#399de5"] ;
20 -> 21 ;
22 [label="gini = 0.0\nsamples = 1\nvalue = [1, 0]\nclass = [", fillcolor="#e58139"] ;
20 -> 22 ;
23 [label="gini = 0.0\nsamples = 9\nvalue = [15, 0]\nclass = [", fillcolor="#e58139"] ;
17 -> 23 ;
24 [label="gini = 0.0\nsamples = 16\nvalue = [25, 0]\nclass = [", fillcolor="#e58139"] ;
14 -> 24 ;
25 [label="ca <= 0.5\ngini = 0.43\nsamples = 13\nvalue = [6, 13]\nclass = 0", fillcolor="#94caf1"] ;
11 -> 25 ;
26 [label="exang <= 0.5\ngini = 0.41\nsamples = 6\nvalue = [5, 2]\nclass = [", fillcolor="#efb388"] ;
25 -> 26 ;
27 [label="trestbps <= 115.0\ngini = 0.38\nsamples = 4\nvalue = [3, 1]\nclass = [", fillcolor="#eeab7b"] ;
26 -> 27 ;
28 [label="oldpeak <= 0.5\ngini = 0.5\nsamples = 2\nvalue = [1, 1]\nclass = [", fillcolor="#ffffff"] ;
27 -> 28 ;
29 [label="gini = 0.0\nsamples = 1\nvalue = [1, 0]\nclass = [", fillcolor="#e58139"] ;
28 -> 29 ;
30 [label="gini = 0.0\nsamples = 1\nvalue = [0, 1]\nclass = 0", fillcolor="#399de5"] ;
28 -> 30 ;
31 [label="gini = 0.0\nsamples = 2\nvalue = [2, 0]\nclass = [", fillcolor="#e58139"] ;
27 -> 31 ;
32 [label="age <= 63.0\ngini = 0.44\nsamples = 2\nvalue = [2, 1]\nclass = [", fillcolor="#f2c09c"] ;
26 -> 32 ;
33 [label="gini = 0.0\nsamples = 1\nvalue = [2, 0]\nclass = [", fillcolor="#e58139"] ;
32 -> 33 ;
34 [label="gini = 0.0\nsamples = 1\nvalue = [0, 1]\nclass = 0", fillcolor="#399de5"] ;
32 -> 34 ;
35 [label="thalach <= 152.0\ngini = 0.15\nsamples = 7\nvalue = [1, 11]\nclass = 0", fillcolor="#4ba6e7"] ;
25 -> 35 ;
36 [label="gini = 0.0\nsamples = 4\nvalue = [0, 8]\nclass = 0", fillcolor="#399de5"] ;
35 -> 36 ;
37 [label="oldpeak <= 1.25\ngini = 0.38\nsamples = 3\nvalue = [1, 3]\nclass = 0", fillcolor="#7bbeee"] ;
35 -> 37 ;
38 [label="gini = 0.0\nsamples = 1\nvalue = [1, 0]\nclass = [", fillcolor="#e58139"] ;
37 -> 38 ;
39 [label="gini = 0.0\nsamples = 2\nvalue = [0, 3]\nclass = 0", fillcolor="#399de5"] ;
37 -> 39 ;
40 [label="age <= 50.5\ngini = 0.42\nsamples = 72\nvalue = [36, 83]\nclass = 0", fillcolor="#8fc8f0"] ;
0 -> 40 [labeldistance=2.5, labelangle=-45, headlabel="False"] ;
41 [label="oldpeak <= 1.7\ngini = 0.47\nsamples = 16\nvalue = [16, 10]\nclass = [", fillcolor="#f5d0b5"] ;
40 -> 41 ;
42 [label="restecg <= 1.0\ngini = 0.36\nsamples = 13\nvalue = [16, 5]\nclass = [", fillcolor="#eda877"] ;
41 -> 42 ;
43 [label="gini = 0.0\nsamples = 5\nvalue = [10, 0]\nclass = [", fillcolor="#e58139"] ;
42 -> 43 ;
44 [label="trestbps <= 132.0\ngini = 0.5\nsamples = 8\nvalue = [6, 5]\nclass = [", fillcolor="#fbeade"] ;
42 -> 44 ;
45 [label="trestbps <= 123.0\ngini = 0.47\nsamples = 6\nvalue = [3, 5]\nclass = 0", fillcolor="#b0d8f5"] ;
44 -> 45 ;
46 [label="age <= 43.0\ngini = 0.38\nsamples = 4\nvalue = [3, 1]\nclass = [", fillcolor="#eeab7b"] ;
45 -> 46 ;
47 [label="gini = 0.0\nsamples = 1\nvalue = [0, 1]\nclass = 0", fillcolor="#399de5"] ;
46 -> 47 ;
48 [label="gini = 0.0\nsamples = 3\nvalue = [3, 0]\nclass = [", fillcolor="#e58139"] ;
46 -> 48 ;
49 [label="gini = 0.0\nsamples = 2\nvalue = [0, 4]\nclass = 0", fillcolor="#399de5"] ;
45 -> 49 ;
50 [label="gini = 0.0\nsamples = 2\nvalue = [3, 0]\nclass = [", fillcolor="#e58139"] ;
44 -> 50 ;
51 [label="gini = 0.0\nsamples = 3\nvalue = [0, 5]\nclass = 0", fillcolor="#399de5"] ;
41 -> 51 ;
52 [label="oldpeak <= 0.55\ngini = 0.34\nsamples = 56\nvalue = [20, 73]\nclass = 0", fillcolor="#6fb8ec"] ;
40 -> 52 ;
53 [label="trestbps <= 150.0\ngini = 0.5\nsamples = 14\nvalue = [12, 10]\nclass = [", fillcolor="#fbeade"] ;
52 -> 53 ;
54 [label="oldpeak <= 0.15\ngini = 0.44\nsamples = 12\nvalue = [12, 6]\nclass = [", fillcolor="#f2c09c"] ;
53 -> 54 ;
55 [label="trestbps <= 141.0\ngini = 0.38\nsamples = 6\nvalue = [2, 6]\nclass = 0", fillcolor="#7bbeee"] ;
54 -> 55 ;
56 [label="gini = 0.0\nsamples = 5\nvalue = [0, 6]\nclass = 0", fillcolor="#399de5"] ;
55 -> 56 ;
57 [label="gini = 0.0\nsamples = 1\nvalue = [2, 0]\nclass = [", fillcolor="#e58139"] ;
55 -> 57 ;
58 [label="gini = 0.0\nsamples = 6\nvalue = [10, 0]\nclass = [", fillcolor="#e58139"] ;
54 -> 58 ;
59 [label="gini = 0.0\nsamples = 2\nvalue = [0, 4]\nclass = 0", fillcolor="#399de5"] ;
53 -> 59 ;
60 [label="exang <= 0.5\ngini = 0.2\nsamples = 42\nvalue = [8, 63]\nclass = 0", fillcolor="#52a9e8"] ;
52 -> 60 ;
61 [label="ca <= 0.5\ngini = 0.37\nsamples = 17\nvalue = [8, 25]\nclass = 0", fillcolor="#78bced"] ;
60 -> 61 ;
62 [label="gini = 0.0\nsamples = 4\nvalue = [8, 0]\nclass = [", fillcolor="#e58139"] ;
61 -> 62 ;
63 [label="gini = 0.0\nsamples = 13\nvalue = [0, 25]\nclass = 0", fillcolor="#399de5"] ;
61 -> 63 ;
64 [label="gini = 0.0\nsamples = 25\nvalue = [0, 38]\nclass = 0", fillcolor="#399de5"] ;
60 -> 64 ;
}